Language model created by QuickLM on Sat Jan 14 00:01:58 EST 2023
Copyright (c) 1996-2010 Carnegie Mellon University and Alexander I. Rudnicky

The model is in standard ARPA format, designed by Doug Paul while he was at MITRE.

The code that was used to produce this language model is available in Open Source.
Please visit http://www.speech.cs.cmu.edu/tools/ for more information

The (fixed) discount mass is 0.5. The backoffs are computed using the ratio method.
This model based on a corpus of 12 sentences and 13 words

\data\
ngram 1=13
ngram 2=23
ngram 3=24

\1-grams:
-0.9031 </s> -0.3010
-0.9031 <s> -0.2430
-1.6812 BROWSER -0.2430
-1.2833 CLOSE -0.2533
-1.6812 FACEBOOK -0.2430
-1.6812 GITHUB -0.2430
-1.6812 LINKEDIN -0.2430
-1.6812 MUSIC -0.2430
-1.3802 OPEN -0.2632
-1.9823 PLAY -0.2919
-1.9823 START -0.2919
-1.9823 STOP -0.2919
-1.6812 STORE -0.2430

\2-grams:
-0.6812 <s> CLOSE 0.0000
-0.7782 <s> OPEN 0.0000
-1.3802 <s> PLAY 0.0000
-1.3802 <s> START 0.0000
-1.3802 <s> STOP 0.0000
-0.3010 BROWSER </s> -0.3010
-1.0000 CLOSE BROWSER 0.0000
-1.0000 CLOSE FACEBOOK 0.0000
-1.0000 CLOSE GITHUB 0.0000
-1.0000 CLOSE LINKEDIN 0.0000
-1.0000 CLOSE STORE 0.0000
-0.3010 FACEBOOK </s> -0.3010
-0.3010 GITHUB </s> -0.3010
-0.3010 LINKEDIN </s> -0.3010
-0.3010 MUSIC </s> -0.3010
-0.9031 OPEN FACEBOOK 0.0000
-0.9031 OPEN GITHUB 0.0000
-0.9031 OPEN LINKEDIN 0.0000
-0.9031 OPEN STORE 0.0000
-0.3010 PLAY MUSIC 0.0000
-0.3010 START BROWSER 0.0000
-0.3010 STOP MUSIC 0.0000
-0.3010 STORE </s> -0.3010

\3-grams:
-1.0000 <s> CLOSE BROWSER
-1.0000 <s> CLOSE FACEBOOK
-1.0000 <s> CLOSE GITHUB
-1.0000 <s> CLOSE LINKEDIN
-1.0000 <s> CLOSE STORE
-0.9031 <s> OPEN FACEBOOK
-0.9031 <s> OPEN GITHUB
-0.9031 <s> OPEN LINKEDIN
-0.9031 <s> OPEN STORE
-0.3010 <s> PLAY MUSIC
-0.3010 <s> START BROWSER
-0.3010 <s> STOP MUSIC
-0.3010 CLOSE BROWSER </s>
-0.3010 CLOSE FACEBOOK </s>
-0.3010 CLOSE GITHUB </s>
-0.3010 CLOSE LINKEDIN </s>
-0.3010 CLOSE STORE </s>
-0.3010 OPEN FACEBOOK </s>
-0.3010 OPEN GITHUB </s>
-0.3010 OPEN LINKEDIN </s>
-0.3010 OPEN STORE </s>
-0.3010 PLAY MUSIC </s>
-0.3010 START BROWSER </s>
-0.3010 STOP MUSIC </s>

\end\